{
  "layers": [
    {
      "opacity": 1.0, 
      "name": "Base Weights", 
      "enabled": true, 
      "mask": [], 
      "influences": [
        {
          "index": 0, 
          "weights": [0.0, 0.0, 0.0, 0.0, 0.0, 0.0, 0.0, 0.0, 0.0, 0.0, 0.0, 0.0, 0.0, 0.0, 0.0, 0.0, 0.0, 0.0, 0.0, 0.0, 1.0, 1.0, 1.0, 1.0, 1.0, 1.0, 1.0, 1.0, 1.0, 1.0, 1.0, 1.0, 1.0, 1.0, 1.0, 1.0, 1.0, 1.0, 1.0, 1.0, 1.0, 1.0, 1.0, 1.0, 1.0, 1.0, 1.0, 1.0, 1.0, 1.0, 1.0, 1.0, 1.0, 1.0, 1.0, 1.0, 1.0, 1.0, 1.0, 1.0, 1.0, 1.0, 1.0, 1.0, 1.0, 1.0, 1.0, 1.0, 1.0, 1.0, 1.0, 1.0, 1.0, 1.0, 1.0, 1.0, 1.0, 1.0, 1.0, 1.0, 1.0, 1.0, 1.0, 1.0, 1.0, 1.0, 1.0, 1.0, 1.0, 1.0, 1.0, 1.0, 1.0, 1.0, 1.0, 1.0, 1.0, 1.0, 1.0, 1.0, 1.0, 1.0, 1.0, 1.0, 1.0, 1.0, 1.0, 1.0, 1.0, 1.0, 1.0, 1.0, 1.0, 1.0, 1.0, 1.0, 1.0, 1.0, 1.0, 1.0, 1.0, 1.0, 1.0, 1.0, 1.0, 1.0, 1.0, 1.0, 1.0, 1.0, 1.0, 1.0, 1.0, 1.0, 1.0, 1.0, 1.0, 1.0, 1.0, 1.0, 1.0, 1.0, 1.0, 1.0, 0.0, 0.0, 0.0, 0.0, 0.0, 0.0, 0.0, 0.0, 0.0, 0.0, 0.0, 0.0, 0.0, 0.0, 0.0, 0.0, 0.0, 0.0, 0.0, 0.0, 0.0, 0.0, 0.0, 0.0, 0.0, 0.0, 0.0, 0.0, 0.0, 0.0, 0.0, 0.0, 0.0, 0.0, 0.0, 0.0, 0.0, 0.0, 0.0, 0.0, 0.0, 0.0, 0.0, 0.0, 0.0, 0.0, 0.0, 0.0, 0.0, 0.0, 0.0, 0.0, 0.0, 0.0, 0.0, 0.0, 0.0, 0.0, 0.0, 0.0, 0.0, 0.0, 0.0, 0.0, 0.0, 0.0, 0.0, 0.0, 0.0, 0.0, 0.0, 0.0, 0.0, 0.0, 0.0, 0.0, 0.0, 0.0, 0.0, 0.0, 0.0, 0.0, 0.0, 0.0, 0.0, 0.0, 0.0, 0.0, 0.0, 0.0], 
          "name": "|main_ctrl|BND_Skeleton|hip_jnt"
        }, 
        {
          "index": 20, 
          "weights": [0.0, 0.0, 0.0, 0.0, 0.0, 0.0, 0.0, 0.0, 0.0, 0.0, 1.0, 1.0, 1.0, 1.0, 1.0, 1.0, 1.0, 1.0, 1.0, 1.0, 0.0, 0.0, 0.0, 0.0, 0.0, 0.0, 0.0, 0.0, 0.0, 0.0, 0.0, 0.0, 0.0, 0.0, 0.0, 0.0, 0.0, 0.0, 0.0, 0.0, 0.0, 0.0, 0.0, 0.0, 0.0, 0.0, 0.0, 0.0, 0.0, 0.0, 0.0, 0.0, 0.0, 0.0, 0.0, 0.0, 0.0, 0.0, 0.0, 0.0, 0.0, 0.0, 0.0, 0.0, 0.0, 0.0, 0.0, 0.0, 0.0, 0.0, 0.0, 0.0, 0.0, 0.0, 0.0, 0.0, 0.0, 0.0, 0.0, 0.0, 0.0, 0.0, 0.0, 0.0, 0.0, 0.0, 0.0, 0.0, 0.0, 0.0, 0.0, 0.0, 0.0, 0.0, 0.0, 0.0, 0.0, 0.0, 0.0, 0.0, 0.0, 0.0, 0.0, 0.0, 0.0, 0.0, 0.0, 0.0, 0.0, 0.0, 0.0, 0.0, 0.0, 0.0, 0.0, 0.0, 0.0, 0.0, 0.0, 0.0, 0.0, 0.0, 0.0, 0.0, 0.0, 0.0, 0.0, 0.0, 0.0, 0.0, 0.0, 0.0, 0.0, 0.0, 0.0, 0.0, 0.0, 0.0, 0.0, 0.0, 0.0, 0.0, 0.0, 0.0, 0.0, 0.0, 0.0, 0.0, 0.0, 0.0, 0.0, 0.0, 0.0, 0.0, 0.0, 0.0, 0.0, 0.0, 0.0, 0.0, 0.0, 0.0, 0.0, 0.0, 0.0, 0.0, 0.0, 0.0, 0.0, 0.0, 0.0, 0.0, 0.0, 0.0, 0.0, 0.0, 0.0, 0.0, 0.0, 0.0, 0.0, 0.0, 0.0, 0.0, 0.0, 0.0, 0.0, 0.0, 0.0, 0.0, 0.0, 0.0, 0.0, 0.0, 0.0, 0.0, 0.0, 0.0, 0.0, 0.0, 0.0, 0.0, 0.0, 0.0, 0.0, 0.0, 0.0, 0.0, 0.0, 0.0, 0.0, 0.0, 0.0, 0.0, 0.0, 0.0, 0.0, 0.0, 0.0, 0.0, 0.0, 0.0, 0.0, 0.0, 0.0, 0.0, 0.0, 0.0, 0.0, 0.0, 0.0, 0.0, 0.0, 0.0], 
          "name": "|main_ctrl|BND_Skeleton|hip_jnt|spine_01_jnt|spine_02_jnt|spine_03_jnt|spine_04_jnt|clavicle_r_jnt"
        }, 
        {
          "index": 21, 
          "weights": [1.0, 1.0, 1.0, 1.0, 1.0, 1.0, 1.0, 1.0, 1.0, 1.0, 0.0, 0.0, 0.0, 0.0, 0.0, 0.0, 0.0, 0.0, 0.0, 0.0, 0.0, 0.0, 0.0, 0.0, 0.0, 0.0, 0.0, 0.0, 0.0, 0.0, 0.0, 0.0, 0.0, 0.0, 0.0, 0.0, 0.0, 0.0, 0.0, 0.0, 0.0, 0.0, 0.0, 0.0, 0.0, 0.0, 0.0, 0.0, 0.0, 0.0, 0.0, 0.0, 0.0, 0.0, 0.0, 0.0, 0.0, 0.0, 0.0, 0.0, 0.0, 0.0, 0.0, 0.0, 0.0, 0.0, 0.0, 0.0, 0.0, 0.0, 0.0, 0.0, 0.0, 0.0, 0.0, 0.0, 0.0, 0.0, 0.0, 0.0, 0.0, 0.0, 0.0, 0.0, 0.0, 0.0, 0.0, 0.0, 0.0, 0.0, 0.0, 0.0, 0.0, 0.0, 0.0, 0.0, 0.0, 0.0, 0.0, 0.0, 0.0, 0.0, 0.0, 0.0, 0.0, 0.0, 0.0, 0.0, 0.0, 0.0, 0.0, 0.0, 0.0, 0.0, 0.0, 0.0, 0.0, 0.0, 0.0, 0.0, 0.0, 0.0, 0.0, 0.0, 0.0, 0.0, 0.0, 0.0, 0.0, 0.0, 0.0, 0.0, 0.0, 0.0, 0.0, 0.0, 0.0, 0.0, 0.0, 0.0, 0.0, 0.0, 0.0, 0.0, 0.0, 0.0, 0.0, 0.0, 0.0, 0.0, 0.0, 0.0, 0.0, 0.0, 0.0, 0.0, 0.0, 0.0, 0.0, 0.0, 0.0, 0.0, 0.0, 0.0, 0.0, 0.0, 0.0, 0.0, 0.0, 0.0, 0.0, 0.0, 0.0, 0.0, 0.0, 0.0, 0.0, 0.0, 0.0, 0.0, 0.0, 0.0, 0.0, 0.0, 0.0, 0.0, 0.0, 0.0, 0.0, 0.0, 0.0, 0.0, 0.0, 0.0, 0.0, 0.0, 0.0, 0.0, 0.0, 0.0, 0.0, 0.0, 0.0, 0.0, 0.0, 0.0, 0.0, 0.0, 0.0, 0.0, 0.0, 0.0, 0.0, 0.0, 0.0, 0.0, 0.0, 0.0, 0.0, 0.0, 0.0, 0.0, 0.0, 0.0, 0.0, 0.0, 0.0, 0.0, 0.0, 0.0, 0.0, 0.0, 0.0, 0.0], 
          "name": "|main_ctrl|BND_Skeleton|hip_jnt|spine_01_jnt|spine_02_jnt|spine_03_jnt|spine_04_jnt|clavicle_l_jnt"
        }, 
        {
          "index": 23, 
          "weights": [0.0, 0.0, 0.0, 0.0, 0.0, 0.0, 0.0, 0.0, 0.0, 0.0, 0.0, 0.0, 0.0, 0.0, 0.0, 0.0, 0.0, 0.0, 0.0, 0.0, 0.0, 0.0, 0.0, 0.0, 0.0, 0.0, 0.0, 0.0, 0.0, 0.0, 0.0, 0.0, 0.0, 0.0, 0.0, 0.0, 0.0, 0.0, 0.0, 0.0, 0.0, 0.0, 0.0, 0.0, 0.0, 0.0, 0.0, 0.0, 0.0, 0.0, 0.0, 0.0, 0.0, 0.0, 0.0, 0.0, 0.0, 0.0, 0.0, 0.0, 0.0, 0.0, 0.0, 0.0, 0.0, 0.0, 0.0, 0.0, 0.0, 0.0, 0.0, 0.0, 0.0, 0.0, 0.0, 0.0, 0.0, 0.0, 0.0, 0.0, 0.0, 0.0, 0.0, 0.0, 0.0, 0.0, 0.0, 0.0, 0.0, 0.0, 0.0, 0.0, 0.0, 0.0, 0.0, 0.0, 0.0, 0.0, 0.0, 0.0, 0.0, 0.0, 0.0, 0.0, 0.0, 0.0, 0.0, 0.0, 0.0, 0.0, 0.0, 0.0, 0.0, 0.0, 0.0, 0.0, 0.0, 0.0, 0.0, 0.0, 0.0, 0.0, 0.0, 0.0, 0.0, 0.0, 0.0, 0.0, 0.0, 0.0, 0.0, 0.0, 0.0, 0.0, 0.0, 0.0, 0.0, 0.0, 0.0, 0.0, 0.0, 0.0, 0.0, 0.0, 1.0, 1.0, 1.0, 1.0, 1.0, 1.0, 1.0, 1.0, 1.0, 1.0, 1.0, 1.0, 1.0, 1.0, 1.0, 1.0, 1.0, 1.0, 1.0, 1.0, 1.0, 1.0, 1.0, 1.0, 1.0, 1.0, 1.0, 1.0, 1.0, 1.0, 1.0, 1.0, 1.0, 1.0, 1.0, 1.0, 1.0, 1.0, 1.0, 1.0, 1.0, 1.0, 1.0, 1.0, 1.0, 1.0, 1.0, 1.0, 1.0, 1.0, 1.0, 1.0, 1.0, 1.0, 1.0, 1.0, 1.0, 1.0, 1.0, 1.0, 1.0, 1.0, 1.0, 1.0, 1.0, 1.0, 1.0, 1.0, 1.0, 1.0, 1.0, 1.0, 1.0, 1.0, 1.0, 1.0, 1.0, 1.0, 1.0, 1.0, 1.0, 1.0, 1.0, 1.0, 1.0, 1.0, 1.0, 1.0, 1.0, 1.0], 
          "name": "|main_ctrl|BND_Skeleton|hip_jnt|spine_01_jnt|spine_02_jnt|spine_03_jnt|spine_04_jnt|clavicle_r_jnt|upperArm_r_jnt|lowerArm_r_jnt"
        }], 
      "dqWeights": []
    }], 
  "influences": {
    "0": {
      "path": "|main_ctrl|BND_Skeleton|hip_jnt", 
      "pivot": [1.3339329640871256e-15, 131.18961334228513, -1.43523508310318], 
      "index": 0
    }, 
    "34": {
      "path": "|main_ctrl|BND_Skeleton|hip_jnt|thigh_r_jnt", 
      "pivot": [-15.506500000000004, 131.19, -1.4352399999999859], 
      "index": 34
    }, 
    "38": {
      "path": "|main_ctrl|BND_Skeleton|hip_jnt|thigh_l_jnt", 
      "pivot": [15.506478134342748, 131.18961334228513, -1.4352350831031742], 
      "index": 38
    }, 
    "39": {
      "path": "|main_ctrl|BND_Skeleton|hip_jnt|spine_01_jnt", 
      "pivot": [1.1832913578315177e-30, 144.03805541992188, -16.512302398681644], 
      "index": 39
    }, 
    "40": {
      "path": "|main_ctrl|BND_Skeleton|hip_jnt|spine_01_jnt|spine_02_jnt", 
      "pivot": [0.00011730194091891409, 166.94719942722915, -16.72819860626032], 
      "index": 40
    }, 
    "11": {
      "path": "|main_ctrl|BND_Skeleton|hip_jnt|spine_01_jnt|spine_02_jnt|spine_03_jnt|spine_04_jnt|clavicle_l_jnt|upperArm_l_jnt", 
      "pivot": [34.153949817021704, 196.14050610860204, -6.7482881334920926], 
      "index": 11
    }, 
    "20": {
      "path": "|main_ctrl|BND_Skeleton|hip_jnt|spine_01_jnt|spine_02_jnt|spine_03_jnt|spine_04_jnt|clavicle_r_jnt", 
      "pivot": [-4.200000438458717, 210.74118265219505, 4.889544824219218], 
      "index": 20
    }, 
    "21": {
      "path": "|main_ctrl|BND_Skeleton|hip_jnt|spine_01_jnt|spine_02_jnt|spine_03_jnt|spine_04_jnt|clavicle_l_jnt", 
      "pivot": [4.185241907835005, 210.80782513710787, 4.883260674136409], 
      "index": 21
    }, 
    "22": {
      "path": "|main_ctrl|BND_Skeleton|hip_jnt|spine_01_jnt|spine_02_jnt|spine_03_jnt|spine_04_jnt|clavicle_r_jnt|upperArm_r_jnt", 
      "pivot": [-34.16866043845869, 196.07418265219505, -6.742005175780822], 
      "index": 22
    }, 
    "23": {
      "path": "|main_ctrl|BND_Skeleton|hip_jnt|spine_01_jnt|spine_02_jnt|spine_03_jnt|spine_04_jnt|clavicle_r_jnt|upperArm_r_jnt|lowerArm_r_jnt", 
      "pivot": [-47.087460438458706, 176.87818265219505, -11.926315175780836], 
      "index": 23
    }, 
    "24": {
      "path": "|main_ctrl|BND_Skeleton|hip_jnt|spine_01_jnt|spine_02_jnt|spine_03_jnt|spine_04_jnt|clavicle_r_jnt|upperArm_r_jnt|lowerArm_r_jnt|hand_r_jnt", 
      "pivot": [-69.3110716843363, 152.30455082811628, -13.007711235965758], 
      "index": 24
    }, 
    "28": {
      "path": "|main_ctrl|BND_Skeleton|hip_jnt|spine_01_jnt|spine_02_jnt|spine_03_jnt|spine_04_jnt|clavicle_r_jnt|upperArm_r_jnt|lowerArm_r_jnt|hand_r_jnt|thumb_01_r_jnt", 
      "pivot": [-71.60187168433632, 147.7435508281162, -6.153431235965789], 
      "index": 28
    }
  }, 
  "meshInfo": {
    "verts": [39.16788864135742, 210.20651245117188, -9.761974334716797, 42.44981384277344, 208.77658081054688, -6.336920261383057, 40.778194427490234, 214.6125030517578, -5.8821306228637695, 39.11479568481445, 209.64703369140625, -2.777874708175659, 35.83286666870117, 211.0769500732422, -6.202944755554199, 31.922021865844727, 211.87942504882812, -9.206402778625488, 34.71921157836914, 210.9189453125, -6.287204742431641, 33.294490814208984, 214.8388214111328, -5.899592399597168, 31.876768112182617, 211.50364685058594, -3.253831624984741, 29.079580307006836, 212.46408081054688, -6.173013687133789, -31.922021865844727, 211.87942504882812, -9.206402778625488, -34.71921157836914, 210.9189453125, -6.287204742431641, -31.876768112182617, 211.50364685058594, -3.253831624984741, -29.079580307006836, 212.46408081054688, -6.173013687133789, -33.294490814208984, 214.8388214111328, -5.899592399597168, -39.16788864135742, 210.20651245117188, -9.761974334716797, -42.44981384277344, 208.77658081054688, -6.336920261383057, -39.11479568481445, 209.64703369140625, -2.777874708175659, -35.83286666870117, 211.0769500732422, -6.202944755554199, -40.778194427490234, 214.6125030517578, -5.8821306228637695, -2.933621883392334, 145.06312561035156, 26.291467666625977, -1.5702693462371826, 146.8688507080078, 26.76046371459961, -5.229806900024414, 148.53567504882812, 27.19338607788086, -6.2343950271606445, 145.13258361816406, 26.30948829650879, 0.080119788646698, 146.8688507080078, 26.76046371459961, 0.9411901235580444, 144.7853240966797, 26.21929931640625, 5.103021621704102, 145.4798126220703, 26.399696350097656, 4.385472774505615, 148.4662322998047, 27.175338745117188, -0.7151286005973816, 145.213623046875, 26.330533981323242, -0.7450748085975647, 146.8688507080078, 26.76046371459961, -2.8815395832061768, 151.92318725585938, 28.07322120666504, -6.488388538360596, 150.67306518554688, 27.748502731323242, -7.286945819854736, 145.100830078125, 26.301244735717773, -4.9553608894348145, 143.53448486328125, 25.89441680908203, -3.3126962184906006, 143.39556884765625, 25.858346939086914, 5.72553014755249, 150.54617309570312, 27.71554946899414, 1.885294795036316, 151.94932556152344, 28.080018997192383, 2.0326712131500244, 143.26962280273438, 25.825626373291016, 3.6434683799743652, 143.3390350341797, 25.843647003173828, 6.111846923828125, 145.45484924316406, 26.3931884765625, -0.49812260270118713, 151.93626403808594, 28.076616287231445, 6.055235385894775, 143.31402587890625, 25.83716583251953, -7.235485076904297, 143.50271606445312, 25.88616180419922, -2.556532859802246, 142.38243103027344, 25.59520721435547, 1.2287263870239258, 142.73110961914062, 25.685766220092773, -5.0398030281066895, 142.5989990234375, 25.65145492553711, 3.686634063720703, 142.4009246826172, 25.600008010864258, -5.5134100914001465, 140.89797973632812, 25.209653854370117, -2.7232472896575928, 140.7706756591797, 25.176584243774414, 0.9733034372329712, 140.7706756591797, 25.176584243774414, 3.650420665740967, 141.11013793945312, 25.264755249023438, -0.8749719858169556, 140.7706756591797, 25.176584243774414, -0.6639032363891602, 142.55677795410156, 25.64047622680664, -2.8815395832061768, 152.90740966796875, 24.28376007080078, -6.488386631011963, 151.65728759765625, 23.959056854248047, -7.286943435668945, 146.08505249023438, 22.511796951293945, 5.725526809692383, 151.53041076660156, 23.926095962524414, 1.885294795036316, 152.93356323242188, 24.290546417236328, 6.111843585968018, 146.43907165527344, 22.603740692138672, -0.49812260270118713, 152.9204864501953, 24.287160873413086, 3.8401150703430176, 144.32972717285156, 22.05588150024414, 6.055235385894775, 144.29827880859375, 22.047718048095703, -5.020365238189697, 144.4554901123047, 22.088546752929688, -7.235485076904297, 144.48690795898438, 22.096725463867188, -5.0398030281066895, 143.5832061767578, 21.861989974975586, 3.686634063720703, 143.38516235351562, 21.810546875, -5.5134100914001465, 141.88221740722656, 21.42020034790039, -2.7232472896575928, 141.75491333007812, 21.38713836669922, 3.650420665740967, 142.09437561035156, 21.475309371948242, 0.9733034372329712, 141.75491333007812, 21.38713836669922, -0.8749719858169556, 141.75491333007812, 21.38713836669922, -2.9336230754852295, 145.43649291992188, 24.853975296020508, -1.5702707767486572, 147.24221801757812, 25.322973251342773, -5.2298078536987305, 148.90907287597656, 25.755916595458984, -6.234395980834961, 145.5059356689453, 24.87199592590332, 4.385473251342773, 148.83961486816406, 25.73784828186035, 0.08012081682682037, 147.24221801757812, 25.322973251342773, 0.9411910176277161, 145.15867614746094, 24.781814575195312, 5.103023052215576, 145.85317993164062, 24.962203979492188, -2.556535243988037, 142.7558135986328, 24.15772247314453, -0.6639055609703064, 142.9301300048828, 24.203001022338867, 1.2287242412567139, 143.10446166992188, 24.248268127441406, -0.7151309251785278, 145.58697509765625, 24.89305877685547, -2.8815395832061768, 152.12005615234375, 27.315326690673828, -0.49812260270118713, 152.13311767578125, 27.31870460510254, 1.8852951526641846, 152.14617919921875, 27.322124481201172, 5.725528717041016, 150.74301147460938, 26.957672119140625, 6.111846446990967, 145.65167236328125, 25.635303497314453, 6.055235385894775, 143.51084899902344, 25.07927703857422, 3.682798385620117, 143.53717041015625, 25.08610725402832, 3.6866347789764404, 142.59776306152344, 24.842113494873047, 3.650420665740967, 141.30702209472656, 24.50686264038086, 0.9733034372329712, 140.967529296875, 24.418689727783203, -0.8749719858169556, 140.967529296875, 24.418689727783203, -2.7232472896575928, 140.967529296875, 24.418689727783203, -5.5134100914001465, 141.09481811523438, 24.451766967773438, -5.039803504943848, 142.7958221435547, 24.89356231689453, -4.968361854553223, 143.71868896484375, 25.133251190185547, -7.235485076904297, 143.69955444335938, 25.128278732299805, -7.286945819854736, 145.2976837158203, 25.54335594177246, -6.488388538360596, 150.86988830566406, 26.990619659423828, -2.8815395832061768, 152.6712188720703, 25.19322967529297, -6.488387584686279, 151.4210662841797, 24.868520736694336, -7.286944389343262, 145.84884643554688, 23.421260833740234, -7.235485076904297, 144.25071716308594, 23.006179809570312, -5.004764556884766, 144.23446655273438, 23.001956939697266, -5.039803504943848, 143.34698486328125, 22.77146339416504, -5.5134100914001465, 141.64599609375, 22.329669952392578, -2.7232472896575928, 141.5186767578125, 22.296592712402344, -0.8749719858169556, 141.5186767578125, 22.296592712402344, 0.9733034372329712, 141.5186767578125, 22.296592712402344, 3.650420665740967, 141.85818481445312, 22.384765625, 3.686634063720703, 143.14892578125, 22.72002410888672, 3.792919874191284, 144.0919647216797, 22.964948654174805, 6.055235385894775, 144.0620574951172, 22.957172393798828, 6.111844062805176, 146.20285034179688, 23.513206481933594, 5.725527286529541, 151.29420471191406, 24.835567474365234, 1.8852951526641846, 152.69735717773438, 25.200016021728516, -0.49812260270118713, 152.68429565429688, 25.196617126464844, -0.8749719858169556, 139.57284545898438, 23.226680755615234, -1.3556673526763916, 139.57284545898438, 23.226680755615234, -1.3556673526763916, 139.72021484375, 22.659263610839844, -0.8749719858169556, 139.72021484375, 22.659278869628906, -0.39427655935287476, 139.57284545898438, 23.226680755615234, -0.39427649974823, 139.72021484375, 22.659278869628906, -3.9843196868896484, 139.4536590576172, 23.358562469482422, -4.695686340332031, 139.486083984375, 23.366989135742188, -4.695685386657715, 139.71270751953125, 22.49449348449707, -3.984318733215332, 139.68026733398438, 22.48605728149414, 2.920691967010498, 139.56210327148438, 23.17127227783203, 2.1999752521514893, 139.470703125, 23.147537231445312, 2.1999740600585938, 139.59243774414062, 22.67868423461914, 2.9206905364990234, 139.683837890625, 22.702430725097656, -5.181884765625, 142.08868408203125, 25.518911361694336, -5.181884765625, 142.28555297851562, 24.761016845703125, -5.181884765625, 142.83670043945312, 22.638927459716797, -5.181884765625, 143.0729217529297, 21.729450225830078, 3.6757702827453613, 142.9979248046875, 21.70996856689453, 3.6757702827453613, 142.76170349121094, 22.619455337524414, 3.6757702827453613, 142.21051025390625, 24.741546630859375, 3.6757702827453613, 142.01365661621094, 25.499439239501953, 1.1520997285842896, 142.14300537109375, 25.533004760742188, -0.7272238731384277, 142.02096557617188, 25.501325607299805, -2.6065471172332764, 141.89891052246094, 25.46961784362793, -66.81513214111328, 168.45046997070312, -14.361034393310547, -68.32361602783203, 165.5211639404297, -11.720312118530273, -67.10967254638672, 167.86595153808594, -8.425220489501953, -65.60132598876953, 170.79574584960938, -11.065958023071289, -70.73329162597656, 170.10418701171875, -11.388694763183594, -69.97837829589844, 162.32232666015625, -15.121393203735352, -71.48681640625, 159.39199829101562, -12.480640411376953, -70.27296447753906, 161.7375946044922, -9.185550689697266, -68.76457214355469, 164.66700744628906, -11.826301574707031, -73.89652252197266, 163.97515869140625, -12.149009704589844, -73.184326171875, 156.1103057861328, -15.892010688781738, -74.6927719116211, 153.18080139160156, -13.251216888427734, -73.47897338867188, 155.52593994140625, -9.95615005493164, -71.97057342529297, 158.45558166503906, -12.596884727478027, -77.10258483886719, 157.7637939453125, -12.919593811035156, -69.22744750976562, 152.60520935058594, -4.619316577911377, -69.51985931396484, 156.6940155029297, -5.634415149688721, -72.51152801513672, 155.77578735351562, -8.469758987426758, -72.21913146972656, 151.68746948242188, -7.4546308517456055, -73.84982299804688, 154.71641540527344, -3.570127487182617, -66.09144592285156, 158.42247009277344, -2.504394054412842, -66.38375854492188, 162.51107788085938, -3.519479274749756, -69.37529754638672, 161.5928497314453, -6.354796886444092, -69.0831069946289, 157.504638671875, -5.33971643447876, -70.71369171142578, 160.53297424316406, -1.4551796913146973, -62.91279220581055, 164.3179168701172, -0.36086273193359375, -63.20528030395508, 168.4065704345703, -1.3759708404541016, -66.19700622558594, 167.4886932373047, -4.211320877075195, -65.90443420410156, 163.3999481201172, -3.1961874961853027, -67.5351791381836, 166.428466796875, 0.6883275508880615, -53.947059631347656, 159.59703063964844, -1.7835917472839355, -54.22677230834961, 162.97593688964844, 0.7333173751831055, -58.34764099121094, 162.2303466796875, 1.2759827375411987, -58.067840576171875, 158.85134887695312, -1.2409348487854004, -55.26451110839844, 158.48109436035156, 3.1093902587890625, -58.470367431640625, 154.73973083496094, -4.108468055725098, -58.750038146972656, 158.11924743652344, -1.5915765762329102, -62.87095642089844, 157.3734588623047, -1.048891544342041, -62.5911979675293, 153.99461364746094, -3.565796375274658, -59.78791046142578, 153.62460327148438, 0.7844944000244141, -62.93352508544922, 149.94775390625, -6.402392387390137, -63.21309280395508, 153.32659912109375, -3.885488510131836, -67.33394622802734, 152.58131408691406, -3.342794418334961, -67.05426025390625, 149.2024383544922, -5.859744071960449, -64.25084686279297, 148.8323516845703, -1.5094327926635742, -65.15641784667969, 168.37564086914062, -17.84321403503418, -61.66547393798828, 169.64540100097656, -19.850967407226562, -61.28050231933594, 165.82200622558594, -21.600282669067383, -64.77140045166016, 164.5515594482422, -19.592544555664062, -65.57415771484375, 168.36814880371094, -23.014812469482422, -68.81398010253906, 162.3771514892578, -17.538801193237305, -65.32295989990234, 163.6468963623047, -19.54657745361328, -64.93778991699219, 159.8232421875, -21.29590606689453, -68.42882537841797, 158.55247497558594, -19.288110733032227, -69.23167419433594, 162.3690948486328, -22.710411071777344, -72.42273712158203, 156.4580841064453, -17.238449096679688, -68.93181610107422, 157.72802734375, -19.246265411376953, -68.5467529296875, 153.904052734375, -20.99557876586914, -72.03758239746094, 152.6337432861328, -18.98774528503418, -72.8404312133789, 156.45046997070312, -22.41010284423828, -66.62135314941406, 153.93458557128906, -21.05131721496582, -62.6225471496582, 154.33554077148438, -19.754730224609375, -62.84600067138672, 150.55145263671875, -17.894306182861328, -66.84476470947266, 150.14996337890625, -19.190921783447266, -63.38822937011719, 150.40377807617188, -23.052268981933594, -61.71565246582031, 158.797607421875, -21.706371307373047, -57.71690368652344, 159.19961547851562, -20.409793853759766, -57.940338134765625, 155.41502380371094, -18.549358367919922, -61.93898391723633, 155.01364135742188, -19.84597396850586, -58.48275375366211, 155.26695251464844, -23.70732879638672, -56.7437858581543, 163.7269287109375, -22.370346069335938, -52.74518966674805, 164.1280975341797, -21.07370376586914, -52.96866226196289, 160.34408569335938, -19.213279724121094, -56.96725845336914, 159.94256591796875, -20.509912490844727, -53.51091766357422, 160.1962432861328, -24.37126350402832, -61.731239318847656, 150.27005004882812, -15.501927375793457, -59.86414337158203, 152.0560760498047, -12.161911010742188, -62.334774017333984, 149.8081512451172, -9.578688621520996, -64.20193481445312, 148.02232360839844, -12.918703079223633, -59.14848327636719, 146.9275360107422, -12.489006042480469, -56.69091796875, 154.9571533203125, -14.622623443603516, -54.823646545410156, 156.7431182861328, -11.282652854919434, -57.294498443603516, 154.49505615234375, -8.699408531188965, -59.161720275878906, 152.70899963378906, -12.039398193359375, -54.10810852050781, 151.61448669433594, -11.609728813171387, -51.58244323730469, 159.70767211914062, -13.731452941894531, -49.71543502807617, 161.49378967285156, -10.391462326049805, -52.186256408691406, 159.24566650390625, -7.808239936828613, -54.053367614746094, 157.45945739746094, -11.148205757141113, -48.99981689453125, 156.36502075195312, -10.718570709228516], 
    "triangles": [0, 2, 1, 1, 2, 3, 3, 2, 4, 4, 2, 0, 5, 7, 6, 6, 7, 8, 8, 7, 9, 9, 7, 5, 10, 11, 14, 11, 12, 14, 12, 13, 14, 13, 10, 14, 15, 16, 19, 16, 17, 19, 17, 18, 19, 18, 15, 19, 72, 73, 71, 71, 73, 74, 76, 77, 75, 75, 77, 78, 20, 28, 21, 21, 28, 29, 21, 30, 22, 22, 30, 31, 23, 22, 32, 32, 22, 31, 23, 33, 20, 20, 33, 34, 24, 27, 36, 36, 27, 35, 25, 24, 28, 28, 24, 29, 26, 25, 38, 38, 25, 37, 26, 39, 27, 27, 39, 35, 30, 21, 40, 40, 21, 29, 29, 24, 40, 40, 24, 36, 38, 41, 26, 26, 41, 39, 33, 23, 42, 42, 23, 32, 34, 43, 20, 20, 43, 28, 37, 25, 44, 44, 25, 28, 33, 45, 34, 34, 45, 43, 38, 37, 46, 46, 37, 44, 143, 133, 48, 48, 133, 47, 140, 141, 50, 50, 141, 49, 142, 143, 51, 51, 143, 48, 141, 142, 49, 49, 142, 51, 79, 80, 82, 82, 80, 81, 100, 83, 102, 102, 83, 101, 99, 100, 103, 103, 100, 102, 85, 86, 117, 117, 86, 116, 86, 87, 116, 116, 87, 115, 83, 84, 101, 101, 84, 118, 84, 85, 118, 118, 85, 117, 89, 113, 88, 88, 113, 114, 87, 88, 115, 115, 88, 114, 97, 98, 105, 105, 98, 104, 98, 99, 104, 104, 99, 103, 97, 105, 96, 96, 105, 106, 90, 112, 89, 89, 112, 113, 95, 134, 107, 107, 134, 135, 125, 126, 128, 128, 126, 127, 138, 139, 111, 111, 139, 91, 129, 130, 132, 132, 130, 131, 119, 120, 122, 122, 120, 121, 123, 119, 124, 124, 119, 122, 20, 21, 71, 71, 21, 72, 21, 22, 72, 72, 22, 73, 22, 23, 73, 73, 23, 74, 23, 20, 74, 74, 20, 71, 27, 24, 75, 75, 24, 76, 24, 25, 76, 76, 25, 77, 25, 26, 77, 77, 26, 78, 26, 27, 78, 78, 27, 75, 43, 52, 79, 79, 52, 80, 52, 44, 80, 80, 44, 81, 44, 28, 81, 81, 28, 82, 28, 43, 82, 82, 43, 79, 30, 40, 83, 83, 40, 84, 40, 36, 84, 84, 36, 85, 36, 35, 85, 85, 35, 86, 35, 39, 86, 86, 39, 87, 39, 41, 87, 87, 41, 88, 38, 89, 41, 41, 89, 88, 38, 46, 89, 89, 46, 90, 139, 140, 91, 91, 140, 50, 50, 49, 91, 91, 49, 92, 49, 51, 92, 92, 51, 93, 51, 48, 93, 93, 48, 94, 48, 47, 94, 94, 47, 95, 47, 133, 95, 95, 133, 134, 33, 97, 45, 45, 97, 96, 33, 42, 97, 97, 42, 98, 42, 32, 98, 98, 32, 99, 32, 31, 99, 99, 31, 100, 31, 30, 100, 100, 30, 83, 102, 101, 54, 54, 101, 53, 103, 102, 55, 55, 102, 54, 104, 103, 63, 63, 103, 55, 105, 104, 62, 62, 104, 63, 105, 62, 106, 106, 62, 64, 107, 135, 66, 66, 135, 136, 108, 107, 67, 67, 107, 66, 109, 108, 70, 70, 108, 67, 110, 109, 69, 69, 109, 70, 111, 110, 68, 68, 110, 69, 137, 138, 68, 68, 138, 111, 112, 65, 113, 113, 65, 60, 113, 60, 114, 114, 60, 61, 115, 114, 58, 58, 114, 61, 116, 115, 56, 56, 115, 58, 117, 116, 57, 57, 116, 56, 118, 117, 59, 59, 117, 57, 101, 118, 53, 53, 118, 59, 94, 120, 93, 93, 120, 119, 94, 108, 120, 120, 108, 121, 108, 109, 121, 121, 109, 122, 92, 93, 123, 123, 93, 119, 110, 124, 109, 109, 124, 122, 110, 92, 124, 124, 92, 123, 94, 95, 125, 125, 95, 126, 95, 107, 126, 126, 107, 127, 108, 128, 107, 107, 128, 127, 108, 94, 128, 128, 94, 125, 91, 92, 129, 129, 92, 130, 92, 110, 130, 130, 110, 131, 110, 111, 131, 131, 111, 132, 111, 91, 132, 132, 91, 129, 134, 133, 96, 96, 133, 45, 135, 134, 106, 106, 134, 96, 136, 135, 64, 64, 135, 106, 112, 138, 65, 65, 138, 137, 90, 139, 112, 112, 139, 138, 46, 140, 90, 90, 140, 139, 44, 141, 46, 46, 141, 140, 142, 141, 52, 52, 141, 44, 143, 142, 43, 43, 142, 52, 43, 45, 143, 143, 45, 133, 144, 145, 148, 145, 146, 148, 146, 147, 148, 147, 144, 148, 149, 150, 153, 150, 151, 153, 151, 152, 153, 152, 149, 153, 154, 155, 158, 155, 156, 158, 156, 157, 158, 157, 154, 158, 159, 160, 163, 160, 161, 163, 161, 162, 163, 162, 159, 163, 164, 165, 168, 165, 166, 168, 166, 167, 168, 167, 164, 168, 169, 170, 173, 170, 171, 173, 171, 172, 173, 172, 169, 173, 174, 175, 178, 175, 176, 178, 176, 177, 178, 177, 174, 178, 179, 180, 183, 180, 181, 183, 181, 182, 183, 182, 179, 183, 184, 185, 188, 185, 186, 188, 186, 187, 188, 187, 184, 188, 189, 190, 193, 190, 191, 193, 191, 192, 193, 192, 189, 193, 194, 195, 198, 195, 196, 198, 196, 197, 198, 197, 194, 198, 199, 200, 203, 200, 201, 203, 201, 202, 203, 202, 199, 203, 204, 205, 208, 205, 206, 208, 206, 207, 208, 207, 204, 208, 209, 210, 213, 210, 211, 213, 211, 212, 213, 212, 209, 213, 214, 215, 218, 215, 216, 218, 216, 217, 218, 217, 214, 218, 219, 220, 223, 220, 221, 223, 221, 222, 223, 222, 219, 223, 224, 225, 228, 225, 226, 228, 226, 227, 228, 227, 224, 228, 229, 230, 233, 230, 231, 233, 231, 232, 233, 232, 229, 233]
  }
}